1 100
sent_0 -0.007442 0.048049 0.061206 -0.001749 0.013308 0.022434 -0.039155 -0.029096 0.034268 0.043823 0.040404 0.023692 -0.043519 -0.017606 -0.030148 -0.038429 0.064224 0.102430 0.063443 0.017391 0.026809 -0.023178 0.009884 -0.058405 0.030479 0.024496 0.005152 -0.032952 -0.021134 -0.026622 0.019496 0.055152 0.034684 -0.140019 0.014556 0.022505 -0.053098 0.087367 0.120821 0.092801 -0.019002 -0.030267 0.004419 -0.014039 -0.061549 -0.037485 -0.037718 -0.029640 0.030877 0.035075 -0.117061 0.010622 -0.041834 0.092551 -0.031510 0.027838 0.012014 0.001829 0.003820 0.041817 -0.067876 0.003712 0.065134 0.023098 0.099026 -0.058784 -0.008284 0.074131 0.100865 0.014483 -0.075164 0.007113 0.021263 -0.002514 0.026098 -0.034457 -0.002238 0.081060 0.018999 -0.036597 0.001275 -0.067510 -0.020226 -0.054307 -0.041979 0.086394 -0.027742 0.092541 0.009948 0.043859 0.052216 -0.021691 0.084232 -0.047826 0.063806 0.010612 -0.000208 -0.049366 -0.062885 -0.000343
